<?xml version="1.0"?>
<opencv_storage>
<cascade>
  <stageType>BOOST</stageType>
  <featureType>HAAR</featureType>
  <height>24</height>
  <width>24</width>
  <stageParams>
    <boostType>GAB</boostType>
    <minHitRate>9.9500000476837158e-01</minHitRate>
    <maxFalseAlarm>5.0000000000000000e-01</maxFalseAlarm>
    <weightTrimRate>9.4999998807907104e-01</weightTrimRate>
    <maxDepth>1</maxDepth>
    <maxWeakCount>100</maxWeakCount></stageParams>
  <featureParams>
    <maxCatCount>0</maxCatCount>
    <featSize>1</featSize>
    <mode>BASIC</mode></featureParams>
  <stageNum>12</stageNum>
  <stages>
    <!-- stage 0 -->
    <_>
      <maxWeakCount>5</maxWeakCount>
      <stageThreshold>-1.7438997030258179e+00</stageThreshold>
      <weakClassifiers>
        <_>
          <internalNodes>
            0 -1 6 -2.1974471211433411e-01</internalNodes>
          <leafValues>
            8.1818181276321411e-01 -9.2857140302658081e-01</leafValues></_>
        <_>
          <internalNodes>
            0 -1 8 -4.9100555479526520e-02</internalNodes>
          <leafValues>
            1.2397799640893936e-01 -8.7762016057968140e-01</leafValues></_>
        <_>
          <internalNodes>
            0 -1 15 2.2908102720975876e-02</internalNodes>
          <leafValues>
            -6.9043344259262085e-01 4.3527182936668396e-01</leafValues></_>
        <_>
          <internalNodes>
            0 -1 52 -2.4120372836478055e-04</internalNodes>
          <leafValues>
            -9.5899307727813721e-01 2.5041717290878296e-01</leafValues></_>
        <_>
          <internalNodes>
            0 -1 29 -3.5613231360912323e-02</internalNodes>
          <leafValues>
            6.0903662443161011e-01 -4.9928995966911316e-01</leafValues></_></weakClassifiers></_>
    <!-- stage 1 -->
    <_>
      <maxWeakCount>3</maxWeakCount>
      <stageThreshold>-1.2846393585205078e+00</stageThreshold>
      <weakClassifiers>
        <_>
          <internalNodes>
            0 -1 53 -1.0021708905696869e-01</internalNodes>
          <leafValues>
            6.3636362552642822e-01 -9.2664092779159546e-01</leafValues></_>
        <_>
          <internalNodes>
            0 -1 23 -2.3128848988562822e-04</internalNodes>
          <leafValues>
            4.3054485321044922e-01 -7.8632777929306030e-01</leafValues></_>
        <_>
          <internalNodes>
            0 -1 35 -1.9541112123988569e-04</internalNodes>
          <leafValues>
            4.2832937836647034e-01 -7.4189120531082153e-01</leafValues></_></weakClassifiers></_>
    <!-- stage 2 -->
    <_>
      <maxWeakCount>3</maxWeakCount>
      <stageThreshold>-1.5495429039001465e+00</stageThreshold>
      <weakClassifiers>
        <_>
          <internalNodes>
            0 -1 44 -1.5174347907304764e-02</internalNodes>
          <leafValues>
            5.3846156597137451e-01 -9.2843323945999146e-01</leafValues></_>
        <_>
          <internalNodes>
            0 -1 51 2.8442639857530594e-02</internalNodes>
          <leafValues>
            -8.0989938974380493e-01 1.4116060733795166e-01</leafValues></_>
        <_>
          <internalNodes>
            0 -1 20 -2.2306991741061211e-03</internalNodes>
          <leafValues>
            -9.9140352010726929e-01 1.8878972530364990e-01</leafValues></_></weakClassifiers></_>
    <!-- stage 3 -->
    <_>
      <maxWeakCount>4</maxWeakCount>
      <stageThreshold>-1.6868311166763306e+00</stageThreshold>
      <weakClassifiers>
        <_>
          <internalNodes>
            0 -1 21 -7.5511521100997925e-01</internalNodes>
          <leafValues>
            5.3846156597137451e-01 -9.2843323945999146e-01</leafValues></_>
        <_>
          <internalNodes>
            0 -1 16 3.2859393395483494e-03</internalNodes>
          <leafValues>
            -1.9569930434226990e-01 -9.8034906387329102e-01</leafValues></_>
        <_>
          <internalNodes>
            0 -1 12 -4.9284758279100060e-04</internalNodes>
          <leafValues>
            -1. 6.4142532646656036e-02</leafValues></_>
        <_>
          <internalNodes>
            0 -1 31 1.7467839643359184e-03</internalNodes>
          <leafValues>
            1.5780875086784363e-01 -9.8136842250823975e-01</leafValues></_></weakClassifiers></_>
    <!-- stage 4 -->
    <_>
      <maxWeakCount>4</maxWeakCount>
      <stageThreshold>-1.6435023546218872e+00</stageThreshold>
      <weakClassifiers>
        <_>
          <internalNodes>
            0 -1 5 -8.5247540473937988e-01</internalNodes>
          <leafValues>
            7.5000000000000000e-01 -9.2300289869308472e-01</leafValues></_>
        <_>
          <internalNodes>
            0 -1 50 2.8030768036842346e-02</internalNodes>
          <leafValues>
            -8.1797993183135986e-01 4.5276001095771790e-02</leafValues></_>
        <_>
          <internalNodes>
            0 -1 9 -4.4970837188884616e-04</internalNodes>
          <leafValues>
            -9.1269779205322266e-01 2.2898830473423004e-01</leafValues></_>
        <_>
          <internalNodes>
            0 -1 10 -4.1754811536520720e-04</internalNodes>
          <leafValues>
            -9.4630789756774902e-01 1.4692230522632599e-01</leafValues></_></weakClassifiers></_>
    <!-- stage 5 -->
    <_>
      <maxWeakCount>5</maxWeakCount>
      <stageThreshold>-1.7613052129745483e+00</stageThreshold>
      <weakClassifiers>
        <_>
          <internalNodes>
            0 -1 26 -1.6739185899496078e-02</internalNodes>
          <leafValues>
            7.7777779102325439e-01 -9.2485547065734863e-01</leafValues></_>
        <_>
          <internalNodes>
            0 -1 43 1.0097350459545851e-03</internalNodes>
          <leafValues>
            -7.6006346940994263e-01 1.5841571986675262e-01</leafValues></_>
        <_>
          <internalNodes>
            0 -1 39 -2.7953187236562371e-04</internalNodes>
          <leafValues>
            4.5569184422492981e-01 -6.6677248477935791e-01</leafValues></_>
        <_>
          <internalNodes>
            0 -1 55 -1.7494530184194446e-03</internalNodes>
          <leafValues>
            -7.7541822195053101e-01 3.0202215909957886e-01</leafValues></_>
        <_>
          <internalNodes>
            0 -1 47 7.4669398600235581e-05</internalNodes>
          <leafValues>
            -5.3529888391494751e-01 4.4732525944709778e-01</leafValues></_></weakClassifiers></_>
    <!-- stage 6 -->
    <_>
      <maxWeakCount>5</maxWeakCount>
      <stageThreshold>-1.6330736875534058e+00</stageThreshold>
      <weakClassifiers>
        <_>
          <internalNodes>
            0 -1 25 -2.5810582563281059e-02</internalNodes>
          <leafValues>
            5.5555558204650879e-01 -9.2292869091033936e-01</leafValues></_>
        <_>
          <internalNodes>
            0 -1 45 -2.5504010915756226e-01</internalNodes>
          <leafValues>
            4.2247250676155090e-01 -6.9485574960708618e-01</leafValues></_>
        <_>
          <internalNodes>
            0 -1 27 -3.9287649095058441e-02</internalNodes>
          <leafValues>
            5.8573937416076660e-01 -4.7742429375648499e-01</leafValues></_>
        <_>
          <internalNodes>
            0 -1 1 2.2689779289066792e-03</internalNodes>
          <leafValues>
            2.3997312784194946e-01 -1.</leafValues></_>
        <_>
          <internalNodes>
            0 -1 7 -1.3242900604382157e-04</internalNodes>
          <leafValues>
            -8.0395501852035522e-01 2.2216196358203888e-01</leafValues></_></weakClassifiers></_>
    <!-- stage 7 -->
    <_>
      <maxWeakCount>5</maxWeakCount>
      <stageThreshold>-1.6615881919860840e+00</stageThreshold>
      <weakClassifiers>
        <_>
          <internalNodes>
            0 -1 17 -3.8037478923797607e-02</internalNodes>
          <leafValues>
            1. -9.1938579082489014e-01</leafValues></_>
        <_>
          <internalNodes>
            0 -1 36 -1.2123797088861465e-02</internalNodes>
          <leafValues>
            -4.8212669789791107e-02 -7.9206705093383789e-01</leafValues></_>
        <_>
          <internalNodes>
            0 -1 40 -5.8194069424644113e-04</internalNodes>
          <leafValues>
            4.5158916711807251e-01 -4.9602746963500977e-01</leafValues></_>
        <_>
          <internalNodes>
            0 -1 37 1.9010698888450861e-03</internalNodes>
          <leafValues>
            2.5844654440879822e-01 -8.1818622350692749e-01</leafValues></_>
        <_>
          <internalNodes>
            0 -1 49 1.0783361358335242e-04</internalNodes>
          <leafValues>
            -4.5640882849693298e-01 4.3551257252693176e-01</leafValues></_></weakClassifiers></_>
    <!-- stage 8 -->
    <_>
      <maxWeakCount>6</maxWeakCount>
      <stageThreshold>-1.4867898225784302e+00</stageThreshold>
      <weakClassifiers>
        <_>
          <internalNodes>
            0 -1 28 -2.1530997753143311e-01</internalNodes>
          <leafValues>
            5.0000000000000000e-01 -9.2107796669006348e-01</leafValues></_>
        <_>
          <internalNodes>
            0 -1 30 2.5578042492270470e-02</internalNodes>
          <leafValues>
            -7.1395868062973022e-01 1.1695881932973862e-01</leafValues></_>
        <_>
          <internalNodes>
            0 -1 13 2.9190606437623501e-03</internalNodes>
          <leafValues>
            9.9620036780834198e-02 -8.2749956846237183e-01</leafValues></_>
        <_>
          <internalNodes>
            0 -1 2 -9.0035446919500828e-04</internalNodes>
          <leafValues>
            -7.9492658376693726e-01 1.6844730079174042e-01</leafValues></_>
        <_>
          <internalNodes>
            0 -1 4 -1.6863965988159180e-01</internalNodes>
          <leafValues>
            -1. 1.4922943711280823e-01</leafValues></_>
        <_>
          <internalNodes>
            0 -1 24 1.3090036809444427e-02</internalNodes>
          <leafValues>
            -2.6904997229576111e-01 7.5910931825637817e-01</leafValues></_></weakClassifiers></_>
    <!-- stage 9 -->
    <_>
      <maxWeakCount>5</maxWeakCount>
      <stageThreshold>-1.9091255664825439e+00</stageThreshold>
      <weakClassifiers>
        <_>
          <internalNodes>
            0 -1 42 -5.6513521820306778e-02</internalNodes>
          <leafValues>
            1. -9.2122960090637207e-01</leafValues></_>
        <_>
          <internalNodes>
            0 -1 22 5.5974628776311874e-03</internalNodes>
          <leafValues>
            -8.0602586269378662e-01 -1.4358492195606232e-01</leafValues></_>
        <_>
          <internalNodes>
            0 -1 48 1.9217572116758674e-04</internalNodes>
          <leafValues>
            -5.4318541288375854e-01 2.7217638492584229e-01</leafValues></_>
        <_>
          <internalNodes>
            0 -1 0 -8.5033429786562920e-04</internalNodes>
          <leafValues>
            -9.2891383171081543e-01 1.7490968108177185e-01</leafValues></_>
        <_>
          <internalNodes>
            0 -1 31 -4.4499919749796391e-04</internalNodes>
          <leafValues>
            -8.5650837421417236e-01 1.8640567362308502e-01</leafValues></_></weakClassifiers></_>
    <!-- stage 10 -->
    <_>
      <maxWeakCount>6</maxWeakCount>
      <stageThreshold>-1.6868644952774048e+00</stageThreshold>
      <weakClassifiers>
        <_>
          <internalNodes>
            0 -1 54 -1.6643074154853821e-01</internalNodes>
          <leafValues>
            7.1428573131561279e-01 -9.2115384340286255e-01</leafValues></_>
        <_>
          <internalNodes>
            0 -1 3 -1.2026700191199780e-02</internalNodes>
          <leafValues>
            4.9628388136625290e-02 -7.3745429515838623e-01</leafValues></_>
        <_>
          <internalNodes>
            0 -1 38 -4.6814799134153873e-05</internalNodes>
          <leafValues>
            1.6518920660018921e-01 -7.2207987308502197e-01</leafValues></_>
        <_>
          <internalNodes>
            0 -1 46 -3.9096016553230584e-04</internalNodes>
          <leafValues>
            5.4546588659286499e-01 -3.7425497174263000e-01</leafValues></_>
        <_>
          <internalNodes>
            0 -1 34 -3.9080001413822174e-02</internalNodes>
          <leafValues>
            7.5301289558410645e-01 -2.2427655756473541e-01</leafValues></_>
        <_>
          <internalNodes>
            0 -1 32 -1.4824979007244110e-04</internalNodes>
          <leafValues>
            5.0527238845825195e-01 -3.5824078321456909e-01</leafValues></_></weakClassifiers></_>
    <!-- stage 11 -->
    <_>
      <maxWeakCount>6</maxWeakCount>
      <stageThreshold>-2.0703063011169434e+00</stageThreshold>
      <weakClassifiers>
        <_>
          <internalNodes>
            0 -1 19 4.9112670123577118e-02</internalNodes>
          <leafValues>
            -9.2115384340286255e-01 7.1428573131561279e-01</leafValues></_>
        <_>
          <internalNodes>
            0 -1 33 2.5010593235492706e-02</internalNodes>
          <leafValues>
            -6.6682875156402588e-01 5.5268245935440063e-01</leafValues></_>
        <_>
          <internalNodes>
            0 -1 14 -4.8358965432271361e-04</internalNodes>
          <leafValues>
            2.7310156822204590e-01 -5.7042264938354492e-01</leafValues></_>
        <_>
          <internalNodes>
            0 -1 41 1.9737388938665390e-02</internalNodes>
          <leafValues>
            -3.3236518502235413e-01 6.3656562566757202e-01</leafValues></_>
        <_>
          <internalNodes>
            0 -1 11 3.0785361304879189e-03</internalNodes>
          <leafValues>
            2.6103961467742920e-01 -8.5083979368209839e-01</leafValues></_>
        <_>
          <internalNodes>
            0 -1 18 -4.9498453736305237e-03</internalNodes>
          <leafValues>
            -1. 1.5942460298538208e-01</leafValues></_></weakClassifiers></_></stages>
  <features>
    <_>
      <rects>
        <_>
          0 0 1 10 -1.</_>
        <_>
          0 5 1 5 2.</_></rects>
      <tilted>0</tilted></_>
    <_>
      <rects>
        <_>
          0 0 18 1 -1.</_>
        <_>
          6 0 6 1 3.</_></rects>
      <tilted>0</tilted></_>
    <_>
      <rects>
        <_>
          0 0 24 1 -1.</_>
        <_>
          8 0 8 1 3.</_></rects>
      <tilted>0</tilted></_>
    <_>
      <rects>
        <_>
          0 1 20 3 -1.</_>
        <_>
          10 1 10 3 2.</_></rects>
      <tilted>0</tilted></_>
    <_>
      <rects>
        <_>
          0 1 24 23 -1.</_>
        <_>
          12 1 12 23 2.</_></rects>
      <tilted>0</tilted></_>
    <_>
      <rects>
        <_>
          0 2 24 21 -1.</_>
        <_>
          8 2 8 21 3.</_></rects>
      <tilted>0</tilted></_>
    <_>
      <rects>
        <_>
          0 2 21 10 -1.</_>
        <_>
          0 7 21 5 2.</_></rects>
      <tilted>0</tilted></_>
    <_>
      <rects>
        <_>
          0 3 1 15 -1.</_>
        <_>
          0 8 1 5 3.</_></rects>
      <tilted>0</tilted></_>
    <_>
      <rects>
        <_>
          0 5 10 18 -1.</_>
        <_>
          5 5 5 18 2.</_></rects>
      <tilted>0</tilted></_>
    <_>
      <rects>
        <_>
          0 10 1 12 -1.</_>
        <_>
          0 14 1 4 3.</_></rects>
      <tilted>0</tilted></_>
    <_>
      <rects>
        <_>
          0 10 2 14 -1.</_>
        <_>
          0 10 1 7 2.</_>
        <_>
          1 17 1 7 2.</_></rects>
      <tilted>0</tilted></_>
    <_>
      <rects>
        <_>
          0 11 22 1 -1.</_>
        <_>
          11 11 11 1 2.</_></rects>
      <tilted>0</tilted></_>
    <_>
      <rects>
        <_>
          0 14 1 8 -1.</_>
        <_>
          0 18 1 4 2.</_></rects>
      <tilted>0</tilted></_>
    <_>
      <rects>
        <_>
          0 22 24 2 -1.</_>
        <_>
          12 22 12 2 2.</_></rects>
      <tilted>0</tilted></_>
    <_>
      <rects>
        <_>
          1 5 13 2 -1.</_>
        <_>
          1 6 13 1 2.</_></rects>
      <tilted>0</tilted></_>
    <_>
      <rects>
        <_>
          1 18 21 6 -1.</_>
        <_>
          1 21 21 3 2.</_></rects>
      <tilted>0</tilted></_>
    <_>
      <rects>
        <_>
          1 23 22 1 -1.</_>
        <_>
          12 23 11 1 2.</_></rects>
      <tilted>0</tilted></_>
    <_>
      <rects>
        <_>
          2 4 1 12 -1.</_>
        <_>
          2 8 1 4 3.</_></rects>
      <tilted>0</tilted></_>
    <_>
      <rects>
        <_>
          2 7 12 2 -1.</_>
        <_>
          2 7 6 1 2.</_>
        <_>
          8 8 6 1 2.</_></rects>
      <tilted>0</tilted></_>
    <_>
      <rects>
        <_>
          2 8 3 12 -1.</_>
        <_>
          2 12 3 4 3.</_></rects>
      <tilted>0</tilted></_>
    <_>
      <rects>
        <_>
          2 23 20 1 -1.</_>
        <_>
          12 23 10 1 2.</_></rects>
      <tilted>0</tilted></_>
    <_>
      <rects>
        <_>
          3 0 19 24 -1.</_>
        <_>
          3 8 19 8 3.</_></rects>
      <tilted>0</tilted></_>
    <_>
      <rects>
        <_>
          4 1 6 13 -1.</_>
        <_>
          6 1 2 13 3.</_></rects>
      <tilted>0</tilted></_>
    <_>
      <rects>
        <_>
          4 13 2 2 -1.</_>
        <_>
          4 13 1 1 2.</_>
        <_>
          5 14 1 1 2.</_></rects>
      <tilted>0</tilted></_>
    <_>
      <rects>
        <_>
          4 22 12 2 -1.</_>
        <_>
          4 23 12 1 2.</_></rects>
      <tilted>0</tilted></_>
    <_>
      <rects>
        <_>
          5 21 10 2 -1.</_>
        <_>
          5 22 10 1 2.</_></rects>
      <tilted>0</tilted></_>
    <_>
      <rects>
        <_>
          5 22 11 2 -1.</_>
        <_>
          5 23 11 1 2.</_></rects>
      <tilted>0</tilted></_>
    <_>
      <rects>
        <_>
          6 0 17 6 -1.</_>
        <_>
          6 3 17 3 2.</_></rects>
      <tilted>0</tilted></_>
    <_>
      <rects>
        <_>
          6 2 12 9 -1.</_>
        <_>
          10 2 4 9 3.</_></rects>
      <tilted>0</tilted></_>
    <_>
      <rects>
        <_>
          6 9 8 15 -1.</_>
        <_>
          10 9 4 15 2.</_></rects>
      <tilted>0</tilted></_>
    <_>
      <rects>
        <_>
          6 18 8 6 -1.</_>
        <_>
          6 20 8 2 3.</_></rects>
      <tilted>0</tilted></_>
    <_>
      <rects>
        <_>
          6 23 12 1 -1.</_>
        <_>
          12 23 6 1 2.</_></rects>
      <tilted>0</tilted></_>
    <_>
      <rects>
        <_>
          7 11 1 2 -1.</_>
        <_>
          7 12 1 1 2.</_></rects>
      <tilted>0</tilted></_>
    <_>
      <rects>
        <_>
          7 21 11 3 -1.</_>
        <_>
          7 22 11 1 3.</_></rects>
      <tilted>0</tilted></_>
    <_>
      <rects>
        <_>
          8 1 14 8 -1.</_>
        <_>
          8 1 7 4 2.</_>
        <_>
          15 5 7 4 2.</_></rects>
      <tilted>0</tilted></_>
    <_>
      <rects>
        <_>
          8 13 7 2 -1.</_>
        <_>
          8 14 7 1 2.</_></rects>
      <tilted>0</tilted></_>
    <_>
      <rects>
        <_>
          9 0 3 10 -1.</_>
        <_>
          9 5 3 5 2.</_></rects>
      <tilted>0</tilted></_>
    <_>
      <rects>
        <_>
          9 0 15 1 -1.</_>
        <_>
          14 0 5 1 3.</_></rects>
      <tilted>0</tilted></_>
    <_>
      <rects>
        <_>
          9 7 6 2 -1.</_>
        <_>
          9 8 6 1 2.</_></rects>
      <tilted>0</tilted></_>
    <_>
      <rects>
        <_>
          9 10 2 2 -1.</_>
        <_>
          9 11 2 1 2.</_></rects>
      <tilted>0</tilted></_>
    <_>
      <rects>
        <_>
          9 17 3 2 -1.</_>
        <_>
          9 18 3 1 2.</_></rects>
      <tilted>0</tilted></_>
    <_>
      <rects>
        <_>
          9 18 9 6 -1.</_>
        <_>
          9 20 9 2 3.</_></rects>
      <tilted>0</tilted></_>
    <_>
      <rects>
        <_>
          10 1 10 6 -1.</_>
        <_>
          10 1 5 3 2.</_>
        <_>
          15 4 5 3 2.</_></rects>
      <tilted>0</tilted></_>
    <_>
      <rects>
        <_>
          11 22 5 2 -1.</_>
        <_>
          11 23 5 1 2.</_></rects>
      <tilted>0</tilted></_>
    <_>
      <rects>
        <_>
          12 20 4 3 -1.</_>
        <_>
          12 21 4 1 3.</_></rects>
      <tilted>0</tilted></_>
    <_>
      <rects>
        <_>
          14 1 9 21 -1.</_>
        <_>
          14 8 9 7 3.</_></rects>
      <tilted>0</tilted></_>
    <_>
      <rects>
        <_>
          14 19 2 4 -1.</_>
        <_>
          14 21 2 2 2.</_></rects>
      <tilted>0</tilted></_>
    <_>
      <rects>
        <_>
          15 8 2 2 -1.</_>
        <_>
          15 8 1 1 2.</_>
        <_>
          16 9 1 1 2.</_></rects>
      <tilted>0</tilted></_>
    <_>
      <rects>
        <_>
          15 16 2 6 -1.</_>
        <_>
          15 16 1 3 2.</_>
        <_>
          16 19 1 3 2.</_></rects>
      <tilted>0</tilted></_>
    <_>
      <rects>
        <_>
          16 13 3 1 -1.</_>
        <_>
          17 13 1 1 3.</_></rects>
      <tilted>0</tilted></_>
    <_>
      <rects>
        <_>
          18 2 6 15 -1.</_>
        <_>
          21 2 3 15 2.</_></rects>
      <tilted>0</tilted></_>
    <_>
      <rects>
        <_>
          18 4 6 13 -1.</_>
        <_>
          21 4 3 13 2.</_></rects>
      <tilted>0</tilted></_>
    <_>
      <rects>
        <_>
          18 21 6 3 -1.</_>
        <_>
          21 21 3 3 2.</_></rects>
      <tilted>0</tilted></_>
    <_>
      <rects>
        <_>
          19 0 2 21 -1.</_>
        <_>
          19 7 2 7 3.</_></rects>
      <tilted>0</tilted></_>
    <_>
      <rects>
        <_>
          19 1 3 21 -1.</_>
        <_>
          19 8 3 7 3.</_></rects>
      <tilted>0</tilted></_>
    <_>
      <rects>
        <_>
          23 0 1 24 -1.</_>
        <_>
          23 8 1 8 3.</_></rects>
      <tilted>0</tilted></_></features></cascade>
</opencv_storage>
